|--- TG（甘油三酯） <= 1.68
|   |--- TC（总胆固醇） <= 6.18
|   |   |--- class: 低
|   |--- TC（总胆固醇） >  6.18
|   |   |--- class: 高
|--- TG（甘油三酯） >  1.68
|   |--- TG（甘油三酯） <= 1.73
|   |   |--- class: 高
|   |--- TG（甘油三酯） >  1.73
|   |   |--- class: 高
